{"layers":
    [
    {
        "weights":[-0.980478048324585,-1.9625275135040283,-3.0758957862854004,-3.54703426361084,0.9565029144287109,-1.6816093921661377,1.4122980833053589,0.18516145646572113,-1.2043291330337524,-0.2910972237586975,5.875101089477539,2.8814656734466553,0.036581940948963165,0.23101145029067993,0.4288977384567261,-0.386116623878479,-0.10519162565469742,-0.2268507480621338,0.5777807235717773,-1.353786826133728,0.5599616169929504,2.005423069000244,3.940755605697632,4.571619510650635,0.7616842985153198,0.4428771734237671,0.5899651050567627,-0.36978089809417725,1.201456069946289,0.09019263833761215,-0.17405124008655548,-0.30819568037986755,-0.44331827759742737,0.5968317985534668,-0.1439492255449295,-0.7017542719841003,0.6824325919151306,1.8332945108413696,-8.5465669631958,-7.030248641967773,0.15789906680583954,-0.07793290913105011,-2.5430071353912354,-1.4788050651550293,0.8495848178863525,0.05389111489057541,7.4176154136657715,11.406919479370117,0.3291063904762268,-0.892417311668396,-0.22716876864433289,-0.08777879178524017,-0.582373857498169,-0.49286022782325745,-5.206550121307373,-10.26381778717041,2.0511527061462402,3.3579869270324707,0.15262965857982635,-0.16820330917835236,0.08930153399705887,0.12936724722385406,10.417134284973145,10.91113567352295,-0.11875123530626297,0.4838462769985199,1.3990154266357422,-0.886480450630188,-1.888460397720337,-0.7856079339981079,5.585697174072266,3.454110860824585,0.008917336352169514,-1.7222495079040527,-1.3241890668869019,-0.09081323444843292,0.29122084379196167,-0.509552538394928,-0.7443602085113525,-0.8561336994171143,0.23999646306037903,0.993714451789856,0.32164594531059265,-0.3158756196498871,2.0350303649902344,3.883802652359009,-4.59092903137207,-5.320542812347412,-0.02013356424868107,0.5530023574829102,-0.8341086506843567,-0.9182893633842468,2.275763988494873,1.9176994562149048,-4.903801918029785,-4.896482944488525,0.10632631182670593,-0.12703318893909454,-0.66724693775177,-0.9137182831764221,0.564681351184845,0.725177526473999,0.23675109446048737,-0.09787607192993164,0.040925998240709305,0.6046600341796875,0.8452533483505249,-0.2604775130748749,0.045378122478723526,0.0333913154900074,9.526001930236816,9.912393569946289,1.0031108856201172,0.40365302562713623,0.04015596583485603,0.030380042269825935,-1.1988554000854492,-1.5025393962860107,-4.371211051940918,-1.479300618171692,-1.8581719398498535,-0.4889194965362549,-0.9421226382255554,1.065916657447815,-0.6930084228515625,0.9302524924278259,-0.37721118330955505,-0.9441468119621277],"biases":[-0.09536825120449066,-0.09586193412542343,-0.9816171526908875,0.38053837418556213,0.9445701241493225,-0.012344146147370338,1.2452919483184814,0.22025993466377258,1.1897755861282349,-0.8613703846931458,0.9887370467185974,-0.5923495292663574,-0.24214856326580048,-0.022777199745178223,-0.06903687119483948,-1.1844028234481812,0.4862561821937561,-1.0551187992095947,-0.28374478220939636,0.5922302603721619,0.6046538352966309,-0.7295627593994141,0.5596401691436768,-1.2502564191818237,0.1724511682987213,0.0045311530120670795,0.47846612334251404,-1.147879958152771,0.07500272989273071,-0.597733199596405,0.25907573103904724,0.046709008514881134]},null,{"weights":[-0.28988510370254517,-0.23535621166229248,-0.01694154553115368,-0.10043258219957352,-0.24973903596401215,-0.1430339515209198,-0.09546399116516113,0.2692483365535736,0.3122583031654358,0.2152584344148636,-0.15592719614505768,0.31165751814842224,-0.2197740226984024,-0.3329649269580841,0.11779986321926117,-0.13547782599925995,0.03884224593639374,0.2575833797454834,-0.12104936689138412,-0.19381430745124817,-0.21522200107574463,0.04385891556739807,-0.223141610622406,-0.2749922275543213,-0.0029225009493529797,0.02339106798171997,-0.004016671795397997,0.5125394463539124,0.017782343551516533,0.22873333096504211,-0.06365260481834412,0.050263598561286926,0.10339100658893585,-0.25796759128570557,0.5693802833557129,0.10188402980566025,0.01445537805557251,-0.3873022198677063,-0.4348588287830353,-0.24838237464427948,0.10243932157754898,-0.36316537857055664,-0.06335344165563583,-0.07476907968521118,0.058586765080690384,0.47017431259155273,-0.39809221029281616,0.4738340973854065,0.42692121863365173,0.5971468091011047,0.2107713371515274,0.38177043199539185,-0.030459918081760406,-0.713098406791687,-0.25314369797706604,0.06689628213644028,-0.32156553864479065,-0.37276843190193176,0.268650621175766,0.7687891721725464,0.33765509724617004,-0.235484316945076,0.07365390658378601,0.22990162670612335,-0.2261468768119812,0.07168789207935333,-1.1771057844161987,-0.2880062460899353,0.6821920871734619,-0.420645534992218,0.5317953824996948,0.5879672169685364,0.0020640946459025145,-1.9366707801818848,0.5859013795852661,-1.0969922542572021,-0.09715274721384048,-0.24542658030986786,0.28306496143341064,-2.6614558696746826,-0.07808874547481537,-0.934215247631073,-0.47945162653923035,0.1554589718580246,0.5810145139694214,-1.125957727432251,0.16099123656749725,-0.8844746947288513,0.2731706202030182,0.23003940284252167,-0.08035165816545486,-2.6718626022338867,-0.4663766026496887,-0.7221816778182983,0.2096082866191864,0.07935936748981476,-2.7241783142089844,-0.47749054431915283,-2.285630702972412,-0.2989409267902374,-0.5658984780311584,-1.329159140586853,-0.44336047768592834,-0.08959668129682541,-1.1555286645889282,-4.0052809715271,-0.6232756972312927,-1.7805699110031128,-0.5013312101364136,-1.7542407512664795,-1.6267993450164795,-3.9357666969299316,-0.16164495050907135,-1.5179544687271118,0.09320741891860962,-0.3095964193344116,0.021195514127612114,-2.5726237297058105,-0.07211443036794662,-1.2770378589630127,0.16327747702598572,0.15638457238674164,-0.1766633540391922,-3.8801751136779785,0.16909950971603394,-1.4004838466644287,-1.6515636444091797,0.0511794276535511,-0.2921874523162842,-0.36255189776420593,0.1678289771080017,0.07301723957061768,-0.4639102518558502,-0.09728366881608963,-0.3036111891269684,-0.42769333720207214,-0.13469479978084564,0.05665014684200287,-0.03648938238620758,-0.2162279486656189,0.06785689294338226,-0.19667361676692963,0.26179397106170654,-0.24816682934761047,-0.1757819950580597,-0.5478993058204651,-0.12273756414651871,-0.06712507456541061,-0.05364321172237396,0.49446573853492737,-0.19196876883506775,0.06746262311935425,-0.2525499165058136,0.029885800555348396,0.12766914069652557,0.16515682637691498,-0.012890662997961044,-0.2653484642505646,-0.21951955556869507,-0.4323703348636627,-0.11342458426952362,-0.16225403547286987,0.3660900294780731,0.11928828060626984,0.8937430381774902,0.3460693061351776,1.0279722213745117,0.29084983468055725,0.8071377873420715,0.1359572410583496,0.7170256972312927,-0.4432545602321625,-0.33422011137008667,1.0739694833755493,0.7182995080947876,-0.1981881558895111,0.5197749137878418,0.7312012910842896,-0.2669282555580139,0.1792427897453308,0.3406996726989746,0.23342782258987427,0.2895278334617615,0.6454951167106628,0.1583099365234375,-0.08159200102090836,0.24295517802238464,-0.7918786406517029,0.6491283178329468,-0.09094669669866562,0.4504610300064087,0.6255262494087219,-0.16218221187591553,0.16307173669338226,-0.7575373649597168,-0.4288933575153351,-0.14071522653102875,-1.4026700258255005,-0.2879827916622162,-0.8020082116127014,0.031474605202674866,-1.342956781387329,-0.27593064308166504,-1.307769536972046,0.04068305343389511,0.018489988520741463,-1.841189980506897,-1.590226173400879,-0.030201492831110954,-0.39231544733047485,-0.38314345479011536,0.022304026409983635,-0.6547060012817383,-1.1691983938217163,-0.3937676250934601,-0.45691928267478943,-0.11968491971492767,-0.24284662306308746,-0.41056692600250244,-1.2580840587615967,-0.4420608878135681,-0.5563263297080994,0.33900362253189087,0.21134595572948456,0.26904577016830444,-0.3508315086364746,0.11601856350898743,-0.32162711024284363,-0.05523063614964485,0.5832459330558777,-0.5699893236160278,-0.043521203100681305,-0.06755877286195755,-0.5564278364181519,-0.18095946311950684,-0.2310131937265396,0.32769671082496643,0.26158058643341064,0.20416703820228577,-0.02028895542025566,-0.12639184296131134,0.5560479164123535,-0.025065679103136063,-0.33022135496139526,0.5969472527503967,-0.06593791395425797,-0.40492478013038635,0.07397391647100449,-0.5019217133522034,0.19289034605026245,-0.28249427676200867,-0.21568647027015686,-0.35748472809791565,0.19683413207530975,0.018485821783542633,0.27377763390541077,-0.016111599281430244,0.21086910367012024,-0.6363869905471802,0.18645894527435303,-0.05743369460105896,-0.8379411697387695,-0.014323797076940536,-0.022949567064642906,0.6866334080696106,-1.4389389753341675,-0.16263143718242645,-1.0189356803894043,0.2956540584564209,-0.36298224329948425,0.2571730315685272,-1.3252793550491333,0.27729532122612,-0.1484244465827942,-0.3029308319091797,0.38825827836990356,0.3419983685016632,-0.36639508605003357,0.44693493843078613,-0.6575507521629333,-0.4079682528972626,-0.1653430461883545,0.36823686957359314,-1.0288286209106445,0.09670460224151611,-0.6808299422264099,0.2718943953514099,-0.059708576649427414,-0.25122401118278503,0.18938994407653809,-0.08200966566801071,-0.09102697670459747,-0.14808472990989685,-0.8088977932929993,-0.699867844581604,0.053382888436317444,-0.13524118065834045,-0.11582469940185547,-0.6938519477844238,0.37077662348747253,0.05419962480664253,0.31319695711135864,-0.031923502683639526,0.07572320103645325,-0.15491722524166107,0.20629402995109558,-0.0028460645116865635,-0.37509599328041077,0.16594631969928741,0.22651061415672302,0.09720854461193085,0.11028126627206802,0.1963215470314026,-0.06255641579627991,0.17297469079494476,0.07005301117897034,0.2348831444978714,-0.10970439016819,0.29070624709129333,0.33859971165657043,-0.22252990305423737,0.10887208580970764,-0.7252222299575806,-0.1509893536567688,0.1662539541721344,-2.1270978450775146,-1.2528505325317383,-0.284790962934494,-0.047615986317396164,-2.461446762084961,0.03122652694582939,-0.880747377872467,0.022511737421154976,-0.4239744544029236,-1.5085610151290894,-2.2906501293182373,-0.30300942063331604,-0.867935299873352,-0.4412095248699188,0.017415108159184456,-0.7523379921913147,-1.0500004291534424,-0.17391400039196014,-0.9581409692764282,0.0005378202768042684,-0.061639152467250824,-0.33815649151802063,-2.1696932315826416,-0.9599063992500305,-0.3702148199081421,0.14952610433101654,-0.013985984027385712,0.21003828942775726,-0.5164297223091125,0.10738483816385269,-0.20917528867721558,-0.03271971642971039,-0.41037917137145996,0.02306586690247059,-0.14144401252269745,-0.4452962279319763,-0.05613993853330612,-0.15435032546520233,-0.07795892655849457,0.12440994381904602,0.15118062496185303,-0.2975892126560211,-0.06987113505601883,-0.17541584372520447,0.13009420037269592,0.14047953486442566,-0.45872965455055237,0.3477548062801361,-0.26964813470840454,-0.05312240123748779,0.31559306383132935,-0.06512095034122467,0.4634901285171509,-0.2699119746685028,-0.05960317328572273,-0.03741832077503204,0.11610566079616547,-0.44954365491867065,0.07605423778295517,0.16926240921020508,0.18600258231163025,-0.23807507753372192,-0.6638503670692444,-0.555574893951416,-0.1643954962491989,-0.6864250302314758,0.2712486684322357,0.10056745260953903,-0.5888590216636658,-0.1759764850139618,-0.6861246824264526,-0.1483471840620041,0.28734728693962097,0.055691443383693695,0.12898409366607666,-0.06735863536596298,-0.2527177035808563,-0.22329233586788177,-0.10706457495689392,-0.006067238748073578,0.15883088111877441,0.014723998494446278,-0.2328040599822998,0.08317399770021439,0.2212078720331192,0.11205775290727615,-0.2935653626918793,-0.08874992281198502,0.36331525444984436,-0.23917651176452637,0.1147991493344307,-0.08924282342195511,-0.09116620570421219,-0.44928309321403503,-0.013825979083776474,0.3404271900653839,-0.3970412313938141,0.4374327063560486,0.6435985565185547,0.12811318039894104,-0.9676715135574341,0.25065532326698303,-1.7311946153640747,-0.3278709352016449,-0.6715041995048523,0.2990434765815735,-1.344496726989746,-0.5665011405944824,-0.3939879536628723,-0.41736525297164917,0.11321531981229782,-0.08088743686676025,-0.664405107498169,0.2991180121898651,-0.24810472130775452,0.24993619322776794,0.2880241274833679,0.3143601417541504,-1.6618807315826416,0.23066872358322144,-0.5620654821395874,-0.12999919056892395,0.2672269642353058,-0.2607659697532654,0.30714908242225647,0.1819593906402588,0.08145087957382202,0.23941339552402496,-0.27165737748146057,0.06834366172552109,-0.29210156202316284,0.2667914628982544,0.2705696225166321,-0.49351993203163147,-0.05454811453819275,0.0715067908167839,0.43853244185447693,0.2755015790462494,-0.6045548319816589,-0.2008131444454193,-0.10034607350826263,0.1706334501504898,0.2815679907798767,-0.19432228803634644,0.11652975529432297,0.07191401720046997,-0.04292725771665573,0.35783135890960693,0.04544297978281975,-0.02910161018371582,-0.12993274629116058,0.16346755623817444,0.0776459276676178,-0.37712645530700684,0.12160630524158478,-0.28864121437072754,-0.44128212332725525,-0.6876283884048462,0.11195219308137894,0.10481051355600357,-2.2371325492858887,-0.8360896706581116,-0.46182623505592346,0.0880609080195427,-3.507809638977051,0.14574383199214935,-2.425299644470215,0.028500951826572418,-0.2234191596508026,-1.9910739660263062,-3.8109772205352783,-0.022549007087945938,-0.8191550374031067,-0.25431811809539795,-0.34761491417884827,-0.4709477424621582,-2.0835399627685547,0.19231298565864563,-0.6870608329772949,0.30734580755233765,-0.5680419206619263,-0.39286041259765625,-2.951478958129883,-0.8589410185813904,-1.2548054456710815,0.3464820086956024,0.33373990654945374,0.19792452454566956,-0.11461024731397629,-0.25456300377845764,-0.22785381972789764,-0.09159873425960541,-0.18322260677814484,-0.4103268086910248,-0.3163328468799591,0.1815623790025711,0.4245058000087738,-0.06326693296432495,0.6458807587623596,0.21225762367248535,0.6298118829727173,0.11497020721435547,-0.021012868732213974,-0.49790436029434204,-0.22191430628299713,0.163430318236351,0.40002238750457764,-0.49951595067977905,0.39264804124832153,-0.32553207874298096,0.15237422287464142,0.14247049391269684,-0.548338770866394,0.2510738670825958,0.2221122682094574,-0.3991943597793579,0.5643571019172668,0.4299665689468384,-0.1674252599477768,-0.4658467173576355,0.45474034547805786,-0.043906960636377335,0.2507294714450836,0.48561665415763855,0.22107568383216858,0.05645034462213516,0.0335250124335289,0.041363030672073364,-0.15820175409317017,-0.5217736959457397,0.25959041714668274,0.1094120591878891,-1.2745977640151978,-0.4427635371685028,-0.1362628936767578,0.6098623871803284,-0.06690721213817596,0.05564197525382042,0.036885637789964676,0.2379695177078247,-0.4801066815853119,-0.3658926486968994,-0.5911328792572021,0.2168360948562622,0.6479156017303467,0.16813699901103973,0.38938719034194946,-0.36207491159439087,-0.5536507368087769,0.12231295555830002,-0.7498659491539001,-0.2916707694530487,0.35878896713256836,-0.1860758364200592,-0.209554061293602,-0.11812057346105576,-0.47917595505714417,-0.015010230243206024,-0.051409464329481125,0.26659461855888367,-0.0991935059428215,-0.3114055097103119,-0.30039846897125244,-0.04065855219960213,0.6359409689903259,0.05801337584853172,-0.5217220783233643,-0.09986612200737,-0.1543821394443512,0.05264760181307793,-0.24130792915821075,-0.015369171276688576,0.33732742071151733,-0.18024909496307373,-0.009225670248270035,0.00965367816388607,-0.055624958127737045,0.39701899886131287,-0.028370466083288193,-0.16723249852657318,-0.10878173261880875,-0.18552055954933167,0.14934693276882172,0.06972091645002365,0.3976256549358368,-0.8159526586532593,0.5786425471305847,0.2829494774341583,-0.7820941805839539,0.5691216588020325,-0.20183058083057404,0.4455839693546295,-2.2414515018463135,0.41270461678504944,-1.561983585357666,-0.01984221674501896,-1.064145565032959,0.04363005608320236,-3.085287094116211,0.4781351387500763,-0.6953555345535278,-0.4497855603694916,0.19337782263755798,0.27808675169944763,-0.3748720586299896,0.2285686582326889,-1.9289069175720215,0.0008408373687416315,-0.5695444941520691,0.3437783718109131,-2.4772074222564697,0.14256912469863892,-0.8429844379425049,-0.425435870885849,-0.4228452742099762,-0.20430728793144226,-0.18354634940624237,-0.0935477763414383,-0.22459736466407776,-0.2245388776063919,0.482914537191391,-0.1358087658882141,-0.32797643542289734,0.13582253456115723,-0.2458021193742752,-0.02551262080669403,-0.028094923123717308,0.3534054756164551,-0.00843938160687685,0.1429145485162735,0.20618964731693268,-0.15838812291622162,-0.22078226506710052,-0.10870155692100525,-0.488941490650177,0.052393533289432526,-0.014627151191234589,0.06805208325386047,0.16682054102420807,0.08714258670806885,0.029881250113248825,-0.005619232077151537,-0.04323554411530495,-0.1426399201154709,-0.08431880176067352,-0.2942361831665039,0.20097088813781738,0.24349592626094818,-0.7716758847236633,0.40040186047554016,-0.2095446139574051,0.14083512127399445,-0.18663828074932098,-0.7545100450515747,-0.474317342042923,-0.0322122760117054,1.048249363899231,0.5036327242851257,0.4506583511829376,0.18615801632404327,1.460059642791748,0.5161017179489136,-0.4978483319282532,-0.40945467352867126,0.04202961176633835,0.15549340844154358,0.14075353741645813,-0.24493229389190674,0.732185959815979,0.49208495020866394,1.0703376531600952,0.1487850695848465,-0.17744757235050201,-0.20826581120491028,-0.4450591504573822,-0.0502050444483757,-0.13240507245063782,0.10888522863388062,0.3959459960460663,-0.3049243986606598,-0.1170368418097496,-0.7471047043800354,0.2365572154521942,0.038394536823034286,-0.4237099885940552,0.1117497906088829,0.5760608911514282,0.4402655363082886,-1.273320198059082,0.17410966753959656,-1.3007984161376953,0.08766595274209976,-0.5861691236495972,0.06353702396154404,-1.9445216655731201,0.21946188807487488,-0.45475900173187256,-0.7725856304168701,0.21409162878990173,0.43405842781066895,-0.47785261273384094,-0.047241516411304474,-0.711284339427948,0.22239595651626587,-0.23644155263900757,0.31675228476524353,-1.4066888093948364,0.09645345062017441,-0.681157648563385,0.25160443782806396,-0.28103628754615784,0.04810837283730507,0.48303475975990295,0.40454038977622986,0.23839923739433289,0.7155827879905701,0.34553125500679016,0.20302869379520416,0.007626395672559738,0.3525710105895996,-0.42806631326675415,-0.35900384187698364,0.9760539531707764,-0.11306753754615784,-0.518858790397644,-0.26492148637771606,-0.02179604209959507,-0.0884869173169136,0.44628238677978516,0.56797856092453,0.015519348904490471,-0.17952069640159607,0.3230805993080139,0.2425854504108429,-0.2264879047870636,-0.14535140991210938,-0.13042864203453064,-0.034647926688194275,0.6366720199584961,0.16425347328186035,-0.03807726502418518,0.35467755794525146,0.28700533509254456,-0.14017488062381744,-0.010471444576978683,-1.236070156097412,0.07181404531002045,0.032878950238227844,-0.5175371170043945,0.6511629223823547,0.2458471655845642,0.39086073637008667,-2.3381588459014893,0.6664575934410095,-1.9488201141357422,-0.1391761600971222,-1.0328397750854492,0.2906761169433594,-3.558833360671997,0.19171226024627686,-1.1393706798553467,-0.8071703910827637,0.5375404953956604,0.27585723996162415,-0.9918370842933655,0.08459339290857315,-1.7057832479476929,0.15973860025405884,-0.06202952191233635,0.0761597603559494,-3.5740199089050293,0.4254291355609894,-0.9677989482879639,-0.10853177309036255,0.29297611117362976,-0.09272421151399612,0.6650961637496948,0.9602472186088562,0.2183113992214203,1.0280665159225464,0.8179327845573425,0.8308631181716919,-0.04607866331934929,0.5329335927963257,-0.48303309082984924,-0.48092561960220337,2.5421621799468994,0.15953949093818665,-1.019628643989563,0.09767284989356995,1.8935942649841309,0.8915777802467346,1.041878581047058,-0.0034059598110616207,0.22330760955810547,-0.029661614447832108,0.37023383378982544,0.29381102323532104,-0.834869921207428,-0.24823562800884247,0.8276687264442444,0.7141767740249634,1.5989009141921997,-0.09602031111717224,-0.3855730891227722,0.12302867323160172,0.25082412362098694,0.41686904430389404,-0.5221724510192871,-0.41659387946128845,0.07451438903808594,-0.39268213510513306,-0.006037939339876175,-0.3270915746688843,0.16225416958332062,-0.10900813341140747,0.5511431694030762,0.5092164278030396,-0.4844341278076172,-0.21048061549663544,1.286462426185608,0.055662933737039566,-0.07640855759382248,-0.3163842260837555,-0.005165510345250368,-0.47986361384391785,0.3934146761894226,-0.1089615598320961,0.30948927998542786,-0.1484338790178299,0.7721338868141174,0.3808455169200897,0.029279856011271477,-0.18495984375476837,0.002938603749498725,-0.2836889922618866,0.35832610726356506,0.0618194043636322,-0.1259552240371704,0.693341076374054,-0.08501124382019043,-0.03789117559790611,-0.022463474422693253,0.2775650918483734,0.08544885367155075,-0.37356171011924744,-0.31451743841171265,0.054924167692661285,-0.015115772373974323,0.18738462030887604,0.033565182238817215,0.004310381133109331,-0.006922626402229071,0.043241530656814575,-0.07445509731769562,-0.24672645330429077,0.30567190051078796,0.1815677285194397,0.22114808857440948,-0.4933510720729828,-0.3732978403568268,0.00569325964897871,0.028361409902572632,-0.060251154005527496,0.10620017349720001,-0.239301398396492,-0.479173868894577,-0.02705368399620056,-0.41425082087516785,-0.24217338860034943,-0.3675241470336914,-0.13397334516048431,0.3216444253921509,-0.6386220455169678,0.012486620806157589,0.06066256761550903,-0.5287904739379883,0.20321038365364075,-0.0615779273211956,0.3285391330718994,-1.1090115308761597,0.4635409116744995,-1.1723400354385376,-0.17469735443592072,-0.4933921694755554,0.27599042654037476,-1.284809947013855,0.1468534916639328,-0.5532244443893433,-0.11428853124380112,-0.007781901862472296,0.17374718189239502,-0.3976384699344635,0.09131204336881638,-0.6097837686538696,0.07904347032308578,-0.1147131696343422,-0.04821573942899704,-1.8878940343856812,0.26567333936691284,-0.7083686590194702,0.06477322429418564,0.11348901689052582,-0.28261449933052063,0.06753841042518616,0.20481036603450775,-0.1151544600725174,-0.060495469719171524,-0.021168183535337448,-0.149334117770195,0.13682708144187927,-0.10572498291730881,-0.30721431970596313,-0.025296075269579887,-0.032576270401477814,-0.22493302822113037,-0.024180378764867783,0.3016534447669983,-0.10313930362462997,0.19643759727478027,0.02320518158376217,-0.363547682762146,-0.12734337151050568,-0.1437932848930359,-0.19419874250888824,-0.36471033096313477,0.5791561007499695,-0.303667813539505,0.12641672790050507,0.06486647576093674,-0.23125344514846802,-0.16266611218452454,0.14033368229866028,0.3473694920539856,0.2788248360157013,-0.04025080054998398,0.12516017258167267,-0.041828759014606476,-0.12155313044786453,-0.1262357383966446,0.06452714651823044,0.4233594834804535,-0.25375527143478394,-0.4709644615650177,-0.15304319560527802,-0.3034617602825165,1.1151612997055054,-0.014101061969995499,-0.3317488729953766,0.057415541261434555,0.9482103586196899,0.24112048745155334,0.10139062255620956,-0.44505852460861206,0.07959497720003128,-0.4616176187992096,0.07380583882331848,-0.13807526230812073,-0.00985889695584774,0.05985134094953537,-0.20178282260894775,0.04410644620656967,0.5054551959037781,-0.0820905789732933,0.11057429760694504,0.03562087193131447,-0.16592036187648773,-0.37578901648521423,-0.10637740045785904,-0.07975023984909058,0.41555216908454895,-0.02034667879343033,-0.3137882351875305,-0.46929511427879333,0.6317681670188904,0.009641492739319801,0.2634648382663727,0.07789555191993713,0.14765982329845428,0.030527831986546516,0.5243762731552124,-0.2467990666627884,0.18639248609542847,-0.046183742582798004,0.4147159457206726,-0.3220103085041046,-0.00048566298210062087,-0.17523613572120667,-0.018627716228365898,0.6471684575080872,0.4358319938182831,0.26311373710632324,-0.008115953765809536,-0.3344985246658325,0.40344277024269104,-0.01971946284174919,-0.11914768069982529,-0.00471236277371645,0.04102127254009247],"biases":[-0.11495884507894516,0.4367131292819977,3.598435640335083,4.149962425231934,-0.027137553319334984,2.978283643722534,1.9851168394088745,-0.06473702192306519,2.1544973850250244,-0.1666136234998703,2.6689367294311523,0,0,2.524278163909912,0.10409102588891983,4.458802223205566,-0.4883421063423157,-0.0825333446264267,-0.008212501183152199,4.803249359130859,-0.13372129201889038,-0.38576602935791016,2.882295608520508,0.7064914107322693,4.79957914352417,2.1605913639068604,-0.40480688214302063,-0.06564625352621078,2.281294345855713,-0.006241634953767061,-0.11347530037164688,0.14890913665294647]},null,{"weights":[-0.04111500456929207,0.6486314535140991,1.706451654434204,2.531081438064575,0.15290318429470062,2.7352216243743896,1.2632145881652832,0.27113550901412964,1.2439452409744263,-0.4653656482696533,1.5330555438995361,-0.016428140923380852,0.09091602265834808,1.5904964208602905,0.4098683297634125,2.8553380966186523,-0.3305509686470032,-1.1692625284194946,-0.20009344816207886,2.7566025257110596,-0.45232251286506653,-1.4294569492340088,1.666090726852417,0.04593537375330925,2.4358620643615723,1.0429123640060425,-0.7475346922874451,-0.5179462432861328,1.2707995176315308,0.08326753973960876,1.2536109685897827,0.6638361215591431,0.111131452023983,0.526420533657074,1.790286898612976,2.579427480697632,0.08158263564109802,2.6688148975372314,1.222292184829712,0.15679723024368286,1.18314790725708,0.1870591938495636,1.619754433631897,-0.15389785170555115,-0.005245952866971493,1.7290149927139282,0.048569392412900925,2.8463451862335205,-0.5130282044410706,-0.7777855396270752,0.43084609508514404,2.643413543701172,0.04551105946302414,-1.2966593503952026,1.5814043283462524,0.27946680784225464,2.608433723449707,1.1105471849441528,-0.6586389541625977,-0.521908164024353,1.0751656293869019,0.035959336906671524,0.19378069043159485,0.1447901874780655,0.24763599038124084,0.5790265202522278,1.9803681373596191,2.6966001987457275,0.23027633130550385,2.2574985027313232,1.298516869544983,-0.15500572323799133,1.2918809652328491,-0.17019934952259064,1.7499407529830933,0.08474571257829666,-0.233315110206604,1.4937866926193237,-0.1299445778131485,2.6015210151672363,-0.4667348265647888,-0.20246948301792145,0.05176324024796486,2.9133782386779785,0.12266805022954941,-0.8569272756576538,1.194348931312561,0.37104496359825134,2.473297595977783,1.5935025215148926,-0.8830525875091553,-0.17733442783355713,1.3786365985870361,-0.22203563153743744,0.48774248361587524,0.40329983830451965,0.06299915164709091,0.40594351291656494,2.03882098197937,2.7822000980377197,0.06199571490287781,2.220339775085449,1.4189022779464722,-0.05327547341585159,1.1823515892028809,-0.38985416293144226,1.6678376197814941,-0.486945241689682,-0.24758493900299072,1.3110846281051636,-0.07484953850507736,2.592270612716675,-0.38011375069618225,-0.09846696257591248,0.21615056693553925,2.7302560806274414,-0.13537317514419556,-0.8437390327453613,1.3200712203979492,0.522386372089386,2.713067054748535,1.6339126825332642,-0.9158941507339478,-0.3450268507003784,1.1963053941726685,0.19797447323799133,0.36736562848091125,0.049090344458818436,0.027175411581993103,0.43990227580070496,1.8765233755111694,2.8156840801239014,0.31282004714012146,1.9214704036712646,1.292556643486023,0.3381522595882416,1.2399848699569702,-0.6327365040779114,1.8489943742752075,0.21144413948059082,-0.19355343282222748,1.3194079399108887,-0.07044941931962967,2.45721697807312,-0.3960796892642975,0.09673140943050385,0.3125882148742676,2.942612648010254,-0.1774280071258545,-0.4620710015296936,1.5217703580856323,0.7264312505722046,2.637547492980957,1.93449068069458,-1.2096424102783203,0.07935447245836258,1.0712990760803223,0.31035739183425903,0.4400924742221832,-0.07789328694343567,-0.4007575511932373,0.3828999996185303,2.0587055683135986,2.9073915481567383,0.36065077781677246,1.6955628395080566,1.339322566986084,-0.18665562570095062,1.1716604232788086,-0.38778138160705566,1.850188970565796,-0.17183740437030792,0.345438152551651,1.0798755884170532,-0.0010868131648749113,2.3655776977539062,-0.5666970610618591,0.3477337658405304,-0.14152297377586365,2.91982364654541,-0.12986759841442108,-0.8180020451545715,1.5444766283035278,0.9272696375846863,2.637495994567871,2.182875394821167,-0.43138426542282104,-0.018381483852863312,1.1445798873901367,-0.3163739740848541,-0.13825802505016327,0.1269078552722931,0.19480539858341217,0.5830153822898865,1.9882770776748657,2.9456353187561035,-0.05460207164287567,1.1772788763046265,1.4291623830795288,-0.03063700534403324,1.1125704050064087,-0.4916132092475891,1.8765124082565308,0.1713247299194336,0.3413119614124298,1.2917444705963135,0.17280668020248413,2.3239612579345703,-0.7224704623222351,0.5496567487716675,-0.28418153524398804,2.6112825870513916,0.0706244483590126,-0.73683762550354,1.4958851337432861,0.8008016347885132,2.879430055618286,2.7620553970336914,-0.717586874961853,0.032686345279216766,1.5016499757766724,-0.005819609388709068,0.2564849853515625,-0.10197080671787262],
        "biases":[1.5136282444000244,1.0594685077667236,1.1085854768753052,1.39226233959198,1.2623385190963745,1.4034079313278198,1.6956357955932617]
        }
    ],
"epsilon":0.00999258133189499
}