{"actor":[{"weights":[-0.2421458661556244,0.4998839497566223,1.002076506614685,-0.1846904307603836,-0.6199390888214111,0.6033305525779724,1.1407523155212402,-1.5159199237823486,-0.06226357817649841,-1.0211797952651978,-0.08630678802728653,0.38079121708869934,-0.4287382662296295,0.3728347420692444,0.2549791634082794,-1.419258713722229,1.0808454751968384,-0.09782621264457703,-0.46666964888572693,0.2953636944293976,-0.9564184546470642,0.10654854029417038,0.3093704283237457,-0.2602517902851105,-0.2760501205921173,0.17095696926116943,-0.4592905044555664,0.650812029838562,-0.6594587564468384,-0.5640270113945007,-0.09626462310552597,0.5097410678863525,-0.7308465838432312,0.18241214752197266,-0.8327116370201111,0.03601829707622528,-0.6666100025177002,-0.41833266615867615,0.82755446434021,0.28808265924453735,-0.45033904910087585,0.3005247116088867,0.646647036075592,0.24146007001399994,-0.05095935985445976,0.3589121401309967,-0.3170645833015442,-0.00822534505277872,-0.39500054717063904,0.4513344168663025,-0.11235903948545456,0.1098828837275505,0.46292412281036377,-0.841964840888977,-0.2932615280151367,0.5623533725738525,-0.7554957270622253,-0.30496490001678467,-1.275941014289856,-0.4120193123817444,-0.830231249332428,0.33230745792388916,-0.566039502620697,-0.4861205816268921,0.47683942317962646,0.4962911307811737,-1.2344287633895874,-0.5346137285232544,0.8438813090324402,0.7971515655517578,-0.2844557762145996,0.536363422870636,-0.09951204806566238,0.01697186380624771,0.3684311807155609,0.23850174248218536,-0.763380765914917,-0.02940637432038784,-0.6801424622535706,0.5032856464385986,0.37795138359069824,0.07274986058473587,-0.9607650637626648,-0.19433778524398804,-0.4600922763347626,-0.19370003044605255,-0.632932722568512,0.3903614580631256,-0.5322991013526917,0.05886228010058403,-0.40675467252731323,0.6794645190238953,0.05421954765915871,-0.17362791299819946,-0.20086123049259186,-0.11295489966869354,0.07826948910951614,0.7514626383781433,0.04319469630718231,-0.0938040241599083,-0.0685930997133255,-0.9619050621986389,-0.009185010567307472,-0.04362761229276657,0.37511420249938965,0.10356069356203079,-0.0018194842850789428,0.20032444596290588,-0.06166661158204079,-0.7343589663505554,-0.2570488452911377,0.37257125973701477,-0.00266185007058084,0.1327355057001114,-0.1949003040790558,-0.8727495074272156,-0.3415089547634125,-0.6443948149681091,-0.15193185210227966,0.21623167395591736,0.20099148154258728,0.5945906639099121,0.05509183555841446,0.14650914072990417,0.08316740393638611,0.058916185051202774,-1.2307515144348145,-0.6143353581428528,0.23934662342071533,-0.04489794373512268,0.43420466780662537,-0.27266961336135864,0.4122554063796997,0.12350702285766602,0.4439140260219574,0.34541550278663635,0.2826303541660309,0.6576645970344543,0.01018478348851204,0.6455660462379456,0.7249079346656799,-0.1819433718919754,-0.12705184519290924,1.0012978315353394,-0.2433837652206421,0.8431738615036011,-0.25869691371917725,0.10208521038293839,-0.5612744092941284,0.35415026545524597,0.7409064769744873,0.7535263895988464,-0.5747681260108948,-0.14149199426174164,-0.3379608392715454,-0.13415493071079254,-0.6289763450622559,-0.15459845960140228,-0.7787026762962341,-0.39348432421684265,-0.011475810781121254,-0.025878315791487694,-0.8165104389190674,0.1282624900341034,1.1464556455612183,0.3254503011703491,-0.9316524863243103,1.631651759147644,0.09237121790647507,0.05343398451805115,-0.9256935119628906,-0.9574686884880066,-0.3028906285762787,0.03303995355963707,0.2425185590982437,-0.6567897796630859,0.7309934496879578,0.3593711256980896,0.408445805311203,0.15902474522590637,0.06323964893817902,0.023725969716906548,-0.014230920001864433,-0.05894440412521362,-0.6915621161460876,-0.18065574765205383,-0.16369381546974182,-0.3202097415924072,-0.4995819628238678,-0.16212595999240875,-0.0340673066675663,0.6087954640388489,0.7415421009063721,0.1070515513420105,0.023054607212543488,-0.23413659632205963,-0.3912122845649719,0.5923277735710144,0.5947710275650024,-0.9466018080711365,-0.8491442203521729,0.06601582467556,-0.21130742132663727,0.22119548916816711,0.794104814529419,0.2104473114013672,-0.019389580935239792,0.10461360216140747,0.9612703323364258,1.0228867530822754,0.4137360155582428,0.5393502712249756,-0.14797145128250122,-0.6838369369506836,1.0216479301452637,0.31610307097435,-0.19543121755123138,-0.219073086977005,0.31726187467575073,-0.4642919898033142,0.9005725383758545,-0.018101688474416733,0.4456650912761688,-0.6732496619224548,-0.5120825171470642,0.26377466320991516,-0.21103715896606445,0.06240881234407425,-0.27913349866867065,0.1614060401916504,-1.0755976438522339,-0.7707854509353638,-0.44124817848205566,-0.08029475063085556,0.6888276934623718,0.08610907942056656,-1.8025853633880615,0.004229416139423847,-0.2924533188343048,-0.8927754163742065,0.287942498922348,-0.09797913581132889,0.41331014037132263,0.6496898531913757,-0.20576350390911102,0.5467724204063416,-0.4590023159980774,-1.0647211074829102,1.0006160736083984,0.28093692660331726,-0.9544776678085327,0.10700008273124695,0.6703729629516602,0.38305988907814026,0.021875211969017982,-0.063084676861763],"biases":[0.09986115247011185,-0.23704694211483002,-0.05571998283267021,-0.020581185817718506,0.11210289597511292,-0.14800085127353668,-0.01637750118970871,0.012378682382404804,-0.05030576139688492,-0.07108033448457718,-0.07310166209936142,-0.06763200461864471,-0.029916634783148766,-0.010970317758619785,0.000998423551209271,-0.014657585881650448,-0.032732244580984116,0.03994997590780258,-0.15224815905094147,0.020403334870934486,-0.047451362013816833,-0.0079887043684721,-0.02404072880744934,0.037048716098070145,0.07980740815401077,-0.16480901837348938,0.10811163485050201,-0.08068739622831345,0.055694062262773514,-0.10685550421476364,-0.3869714140892029,-0.04622877016663551]},null,{"weights":[-0.00866297073662281,-0.15694664418697357,-0.04557950422167778,0.15894538164138794,0.059826601296663284,-0.1767626404762268,-0.39985743165016174,-0.13146767020225525,-0.278057336807251,0.0807807669043541,0.07696706056594849,0.40176451206207275,0.5309780836105347,-0.2730919122695923,-0.10342055559158325,0.36042356491088867,-0.08917080610990524,0.1003682017326355,0.1690380722284317,-0.34604930877685547,0.30893614888191223,-0.026892798021435738,-0.1886642873287201,-0.4341764450073242,0.23496825993061066,0.17327864468097687,0.3036225140094757,0.014383875764906406,-0.07736518979072571,-0.41510751843452454,0.14889411628246307,-0.16708390414714813,0.011401883326470852,-0.47085630893707275,-0.3152402639389038,-0.040253281593322754,-0.15885549783706665,0.12458255887031555,0.41736283898353577,-0.07155722379684448,0.011910577304661274,0.06535257399082184,0.3914263844490051,0.05412185937166214,0.2444709837436676,0.8151506781578064,0.08515511453151703,0.017026009038090706,-0.09755001962184906,-0.04684801027178764,-0.10955067723989487,0.11186284571886063,0.4842357039451599,0.4152383506298065,0.09782911837100983,0.004595269449055195,-0.26719287037849426,0.06711002439260483,-0.33288970589637756,-0.287283331155777,-0.40798085927963257,0.054907169193029404,0.1967870593070984,0.15227924287319183,0.07309066504240036,0.25314614176750183,-0.3848457336425781,-0.5015817880630493,-0.3967154324054718,-0.024340109899640083,0.20982198417186737,-0.2554881274700165,-0.05225544050335884,0.2179907113313675,0.5584254860877991,-0.05176226794719696,-0.025450555607676506,0.0472118966281414,0.004704650491476059,-0.4556780755519867,0.2379152625799179,-0.10151391476392746,-0.2848304510116577,-0.0028845614288002253,0.06779283285140991,0.21910429000854492,-0.1273193210363388,-0.08000753819942474,-0.15996889770030975,-0.21340374648571014,-0.14132194221019745,-0.1654900312423706,-0.3347786068916321,0.46245214343070984,0.09179530292749405,-0.2626325190067291,-0.34978532791137695,0.07654307782649994,0.2131994664669037,0.10181073099374771,0.04771535471081734,-0.003469419665634632,-0.05796767398715019,0.400235652923584,0.645595371723175,0.15998412668704987,0.20054487884044647,0.28234049677848816,0.1533897966146469,0.07677478343248367,0.07149665802717209,0.0950579047203064,-0.21149618923664093,0.23294879496097565,-0.13744927942752838,0.08386151492595673,0.24139675498008728,0.22813762724399567,0.13951189815998077,0.14405310153961182,-0.2615419328212738,0.1965215504169464,-0.3202831745147705,-0.05904218554496765,-0.06936939805746078,-0.11063304543495178,-0.3348534405231476,0.22792868316173553,0.4625636637210846,0.20963463187217712,0.10704661905765533,-0.2910027503967285,-0.24485674500465393,0.2214258909225464,0.05890645459294319,-0.0618429109454155,-0.5607156157493591,-0.387900173664093,-0.41371214389801025,0.22606371343135834,0.05090778321027756,0.07716279476881027,-0.3163926303386688,0.26918554306030273,0.20415475964546204,-0.30565282702445984,0.17998184263706207,-0.17526327073574066,-0.15238799154758453,0.3825969398021698,0.16067935526371002,0.31597286462783813,0.39595070481300354,-0.022918574512004852,0.04880307987332344,0.2109374701976776,0.01558909472078085,0.2234186828136444,0.07355207949876785,0.16182416677474976,-0.41061997413635254,-0.23318743705749512,0.17739291489124298,0.13903239369392395,-0.1087355762720108,-0.12752437591552734,0.07710164785385132,0.016567550599575043,0.11521124094724655,-0.035162292420864105,-0.2681255340576172,0.07347077131271362,0.1781872659921646,0.12161360681056976,-0.1493576318025589,-0.14184007048606873,0.043209969997406006,0.004443291109055281,-0.06366647034883499,-0.05237777158617973,-0.3196222186088562,-0.16960403323173523,-0.24229738116264343,-0.04827141389250755,0.4294045865535736,-0.07897673547267914,-0.010364232584834099,0.06525945663452148,-0.3205176293849945,0.44941094517707825,-0.4847864508628845,0.5023857355117798,-0.5015032887458801,0.14991024136543274,-0.01990131475031376,-0.4054395854473114,-0.10437320917844772,-0.21953384578227997,-0.1891772449016571,0.13778828084468842,0.07732859253883362,-0.01237880066037178,-0.17547227442264557,-0.03138928860425949,0.3112868070602417,-0.45693328976631165,0.031222177669405937,0.17396219074726105,0.02411734126508236,0.031015222892165184,-0.33615195751190186,-0.16198605298995972,-0.40249955654144287,0.22315634787082672,0.18107320368289948,0.23106004297733307,0.14144086837768555,-0.2609561085700989,-0.035150330513715744,0.0008436984498985112,-0.31791505217552185,0.014882312156260014,-0.0190915334969759,-0.23905791342258453,-0.10030818730592728,0.10799378901720047,0.20962010324001312,-0.05302772670984268,-0.3263353407382965,-0.02399861440062523,0.292718768119812,-0.7757512927055359,0.12420789152383804,0.07307542860507965,0.025264492258429527,0.1893463134765625,0.12022607773542404,-0.26805150508880615,0.27462512254714966,0.07402145117521286,-0.2386322319507599,-0.015621500089764595,-0.16102099418640137,0.004011966288089752,0.40288156270980835,-0.027356907725334167,0.1126849576830864,-0.13918809592723846,0.005047241225838661,0.18964724242687225,-0.44400158524513245,0.30682647228240967,0.016933241859078407,-0.6281241774559021,0.21340392529964447,0.1230810359120369,0.04770355299115181,0.20364460349082947,0.15765666961669922,0.35891664028167725,-0.06412409991025925,0.0019762024749070406,-0.3468579351902008,0.3066805899143219,0.0181997362524271,0.30332261323928833,0.060418616980314255,-0.10833455622196198,-0.2245791256427765,-0.2410060465335846,0.15637144446372986,0.08639998733997345,-0.1440831422805786,-0.5404386520385742,-0.11932004243135452,0.23194663226604462,-0.1376141905784607,0.3578051030635834,0.14447122812271118,0.026736026629805565,-0.27402612566947937,-0.0859423577785492,0.3990379571914673,0.4605787992477417,0.4341976046562195,0.5134132504463196,-0.49973928928375244,-0.3158237338066101,0.2168031483888626,0.18175363540649414,0.04530264437198639,0.024516688659787178,0.022080734372138977,0.20585915446281433,0.35545632243156433,0.14756366610527039,-0.3878220021724701,0.022243954241275787,0.23928147554397583,0.2669748067855835,-0.11678985506296158,-0.19506791234016418,-0.20980176329612732,-0.3765637278556824,0.15755558013916016,-0.14037571847438812,-0.1534697711467743,0.05295424908399582,-0.014521118253469467,0.11830264329910278,0.34013631939888,-0.005319932475686073,0.02228335291147232,-0.08199480175971985,-0.16895392537117004,-0.015050718560814857,-0.029120435938239098,-0.07685180753469467,-0.09034287929534912,-0.40363049507141113,0.38064172863960266,-0.23971393704414368,-0.006007306277751923,0.015485079027712345,-0.055813487619161606,-0.21501602232456207,0.20631128549575806,-0.264859676361084,0.11031655967235565,-0.09765233844518661,-0.3988751769065857,-0.028026625514030457,-0.008510252460837364,0.09303867071866989,0.09535933285951614,-0.14474701881408691,-0.3935745656490326,-0.17527911067008972,0.16888399422168732,0.1925506740808487,0.2034183293581009,-0.21268300712108612,-0.2847628891468048,0.2657313346862793,-0.020263349637389183,-0.3514465093612671,-0.1408141404390335,0.19233913719654083,0.0438331700861454,-0.13335023820400238,-0.044437456876039505,0.27007317543029785,-0.2096831351518631,-0.30093294382095337,0.2989371120929718,-0.23835177719593048,0.07245457917451859,-0.12159832566976547,0.10839369893074036,-0.6679006814956665,0.05883371829986572,-0.2875036299228668,0.2112298458814621,0.0008765296079218388,0.03718069940805435,0.19161269068717957,-0.30212682485580444,-0.127484992146492,0.043437715619802475,0.36065468192100525,0.3667978048324585,-0.08555962145328522,0.08841728419065475,-0.5446995496749878,-0.24556511640548706,0.17259293794631958,-0.09512349218130112,-0.4338519275188446,0.261023610830307,0.6071699857711792,-0.3700335919857025,-0.1477782428264618,0.2889813780784607,0.14153145253658295,0.6256961226463318,-0.31974098086357117,-0.20412907004356384,-0.031806107610464096,0.14716102182865143,-0.3529321253299713,-0.3088257610797882,-0.08275023102760315,-0.14348185062408447,-0.22013993561267853,-0.10453701764345169,0.5798497200012207,0.35238534212112427,0.3141813278198242,-0.2101210355758667,-0.19579103589057922,-0.11145628243684769,0.3379267156124115,-0.08060143142938614,-0.5546327829360962,0.052941787987947464,0.2244681864976883,-0.05662543699145317,-0.2504086196422577,-0.2827804684638977,-0.06279092282056808,-0.15232816338539124,0.16010922193527222,0.3814500868320465,-0.036537863314151764,0.23301374912261963,-0.2068178653717041,-0.009697510860860348,0.14632397890090942,-0.42974182963371277,-0.30997732281684875,-0.5011181235313416,-0.21787379682064056,-0.288146048784256,0.28204619884490967,0.13258954882621765,-0.07978659868240356,0.2315833866596222,-0.31837713718414307,0.6685739159584045,0.18410706520080566,-0.049969643354415894,-0.13550680875778198,0.5178365707397461,0.22412201762199402,0.050530508160591125,-0.2545972466468811,-0.26403048634529114,0.16631732881069183,0.1773805320262909,0.2627202868461609,0.030921567231416702,-0.42903444170951843,0.23333582282066345,-0.05975744128227234,0.09583178162574768,-0.450054794549942,0.1707300990819931,-0.04197055101394653,0.1796819418668747,-0.41522324085235596,0.28228047490119934,-0.22741371393203735,0.11739122122526169,0.5240521430969238,-0.2683314383029938,0.08543436229228973,-0.2256230115890503,0.2338566780090332,0.061026763170957565,0.360442578792572,-0.0669492781162262,0.18134789168834686,-0.17135733366012573,-0.20231372117996216,0.051450956612825394,-0.02339870110154152,0.053130142390728,0.3953852355480194,-0.13270971179008484,-0.10771643370389938,-0.23581595718860626,-0.5179541707038879,0.30013591051101685,-0.05918305739760399,0.020599372684955597,-0.3764120042324066,0.5284690856933594,0.1308543086051941,-0.2700515389442444,-0.3483400046825409,0.30554720759391785,-0.1337563395500183,0.21581415832042694,-0.20529857277870178,0.03902050480246544,0.05119550600647926,0.13071605563163757,0.01938452385365963,0.28989318013191223,-0.4152475893497467,0.20334678888320923,-0.3247159719467163,-0.16097523272037506,0.16592684388160706,-0.04159204289317131,-0.287994384765625,-0.23711086809635162,-0.13881820440292358,0.13534483313560486,-0.010357189923524857,0.52763432264328,-0.1848052591085434,-0.3731342852115631,0.20124326646327972,-0.13387691974639893,-0.026567060500383377,-0.31172871589660645,0.349060595035553,-0.006386366672813892,-0.013570323586463928,-0.18030738830566406,-0.2887405753135681,0.04171628877520561,0.09218078851699829,-0.16120874881744385,0.3131321370601654,0.21234522759914398,0.3659473657608032,-0.08496664464473724,0.03264622762799263,0.04325335472822189,0.1974169909954071,-0.6379170417785645,-0.1870070993900299,0.07844439148902893,0.5064667463302612,0.2945388853549957,0.10959038138389587,0.21904835104942322,-0.15324126183986664,-0.06408169865608215,0.33781111240386963,-0.24426911771297455,0.04679505527019501,0.1842760592699051,-0.26247942447662354,-0.0022822446189820766,-0.23717837035655975,-0.4759935736656189,-0.18772970139980316,-0.2345692366361618,-0.13994145393371582,0.4660944938659668,0.05205100029706955,0.45146700739860535,-0.20048578083515167,0.048597902059555054,-0.59683758020401,-0.22919297218322754,-0.1605912148952484,-0.25009843707084656,0.1413174569606781,0.35741934180259705,-0.28120487928390503,0.020164351910352707,0.2813239097595215,-0.5465517044067383,-0.10887818783521652,0.10803869366645813,-0.13265401124954224,-0.25964054465293884,0.006092390976846218,-0.2526389956474304,-0.18776273727416992,-0.27951109409332275,0.07138180732727051,0.18029528856277466,0.1620185524225235,-0.27257776260375977,-0.4749249219894409,-0.1079702079296112,-0.1489046961069107,-0.20039434731006622,-0.13056161999702454,-0.5222985744476318,-0.5747233033180237,-0.5936893224716187,0.21484607458114624,-0.14710909128189087,0.048194702714681625,0.4677267074584961,-0.2230324149131775,-0.28179633617401123,-0.051508765667676926,0.09922246634960175,-0.08423656225204468,0.28712111711502075,0.5637776255607605,0.05030100420117378,-0.32508277893066406,-0.01032722182571888,0.20045700669288635,0.5589774250984192,0.1923680603504181,-0.11625324189662933,0.41405239701271057,0.7765127420425415,0.17217576503753662,0.21624451875686646,0.20604154467582703,-0.5773720145225525,-0.20979426801204681,-0.045311346650123596,-0.5647445917129517,-0.06514602899551392,-0.38520628213882446,0.08337514102458954,0.43815889954566956,0.5383284091949463,-0.3951452374458313,-0.06962431967258453,0.037026021629571915,-0.06101776659488678,-0.04272687807679176,-0.28256914019584656,0.12190371006727219,-0.18976375460624695,-0.03429766744375229,-0.18172113597393036,0.17796160280704498,0.20183660089969635,-0.06173150613903999,-0.11928430199623108,-0.26129060983657837,0.1359657645225525,0.5171001553535461,0.06110396608710289,0.40057095885276794,0.3172922134399414,-0.49311184883117676,-0.08665227144956589,0.0890832394361496,-0.4111940860748291,-0.3600316345691681,0.21937736868858337,-0.09038037061691284,-0.3628254532814026,0.08892104774713516,-0.23649436235427856,-0.3729483485221863,0.12850041687488556,-0.27333301305770874,0.02986431121826172,-0.08280105143785477,0.5271039009094238,0.10487902164459229,-0.17076511681079865,-0.47597751021385193,0.06914182007312775,-0.1361817717552185,-0.19510051608085632,0.22005440294742584,0.06865934282541275,0.08995534479618073,-0.32266995310783386,-0.3107740581035614,-0.016797862946987152,0.06384892761707306,-0.07394960522651672,-0.1631072461605072,0.8359006643295288,0.1699671447277069,-0.4117721617221832,-0.27385786175727844,-0.21916469931602478,-0.18669438362121582,-0.1318451166152954,0.45196762681007385,-0.2279285043478012,-0.25123611092567444,-0.27317237854003906,-0.211383655667305,-0.1368386596441269,0.11591412127017975,0.30070018768310547,0.21383653581142426,-0.4690784215927124,0.012579577043652534,0.07174766063690186,-0.036321382969617844,-0.34589552879333496,0.35379481315612793,-0.018629752099514008,0.012215119786560535,0.018134158104658127,-0.12345346063375473,0.20701418817043304,-0.23195739090442657,0.16761191189289093,0.42100968956947327,-0.1340467929840088,-0.26990798115730286,-0.12069524079561234,0.16424834728240967,-0.6456037759780884,-0.13837264478206635,-0.024964269250631332,-0.14960002899169922,0.3667915165424347,-0.19513455033302307,0.10816781967878342,-0.20171605050563812,-0.10293253511190414,0.008417919278144836,-0.259574294090271,-0.26432356238365173,-0.008628318086266518,0.06285511702299118,0.07995616644620895,0.3063558340072632,-0.32160547375679016,-0.4123972952365875,-0.014459188096225262,-0.16230766475200653,0.08250602334737778,-0.11996020376682281,-0.13294075429439545,-0.0028074670117348433,0.02988138608634472,-0.12357773631811142,-0.24083413183689117,0.05328979343175888,0.03343422710895538,-0.1600809544324875,0.9409299492835999,-0.41130638122558594,0.2011466771364212,0.012334848754107952,0.3393804132938385,0.31415754556655884,-0.4412491023540497,-0.5926494002342224,0.03522426635026932,-0.888479471206665,-0.022297145798802376,0.19391173124313354,-0.004001519177109003,-0.8498548269271851,-0.22344031929969788,-0.33914342522621155,0.04468492045998573,-0.13043422996997833,0.11056722700595856,-0.35619309544563293,0.2183091938495636,0.23125985264778137,-0.08395320922136307,0.21586744487285614,0.2503071427345276,-0.15104977786540985,0.08657865971326828,0.14228279888629913,0.01745542697608471,0.6094813346862793,-0.1774124652147293,0.1386653631925583,0.4514313340187073,-0.43626341223716736,0.06539865583181381,-0.04148656502366066,0.421147882938385,0.32923373579978943,0.303666889667511,0.4938427209854126,-0.3471033573150635,-0.35645702481269836,0.12149526923894882,-0.27661964297294617,-0.11709742993116379,-0.0893571600317955,0.2307756543159485,-0.2254839837551117,-0.2893446981906891,0.19618913531303406,-0.18625490367412567,-0.2791060209274292,0.2064456343650818,0.07582323998212814,-0.2895674705505371,-0.30337175726890564,0.05504721403121948,0.13230301439762115,0.19485875964164734,0.19525988399982452,-0.33450058102607727,0.395865261554718,-0.5968909859657288,-0.2809038758277893,0.15354521572589874,0.30488675832748413,0.15720388293266296,-0.25003594160079956,-0.4039355516433716,0.3806650638580322,0.1404370814561844,-0.3773634731769562,-0.02279684692621231,-0.42082589864730835,0.160319522023201,-0.21819286048412323,0.39547449350357056,0.2539871037006378,0.07105681300163269,0.06036274507641792,0.09048156440258026,0.18475684523582458,-0.19541215896606445,-0.2695118188858032,0.005283657927066088,0.20538903772830963,-0.2786080241203308,-0.3896624445915222,-0.6128446459770203,0.013010767288506031,-0.020827824249863625,-0.04371349513530731,-0.008885723538696766,0.03197883814573288,0.18418850004673004,-0.20243585109710693,-0.3496936559677124,-0.1995599865913391,-0.27120932936668396,-0.24889394640922546,-0.06725770980119705,0.010016544722020626,-0.2697807550430298,0.06635358184576035,-0.4172704517841339,-0.5271542072296143,0.5676950812339783,-0.27121517062187195,-0.17610546946525574,0.11261672526597977,-0.10989305377006531,0.14089588820934296,0.24063189327716827,0.027218813076615334,0.1737784594297409,-0.478497177362442,-0.06879818439483643,-0.004686799366027117,0.2799745798110962,0.16798193752765656,0.08506833016872406,0.0886293277144432,-0.058556508272886276,0.048668745905160904,0.2560962736606598,-0.24672196805477142,0.22577513754367828,-0.33080315589904785,-0.6393371224403381,0.4289926588535309,0.03285463899374008,0.19972507655620575,0.29397639632225037,-0.19184444844722748,0.14222297072410583,-0.13046970963478088,0.02369493804872036,-0.7040225863456726,-0.8192784190177917,0.08304161578416824,0.19609671831130981,0.5357199311256409,0.5407575964927673,0.12636010348796844,0.08815324306488037,0.3121800720691681,0.02764057368040085,0.11450493335723877,0.028675364330410957,0.1492941528558731,-0.02883182279765606,0.225459486246109,-0.31617793440818787,-0.37854957580566406,-0.06014026701450348,0.2624330520629883,0.410964697599411,-0.2560950815677643,0.008914533071219921,-0.8771476149559021,-0.2250729203224182,0.09990902990102768,0.5064744353294373,0.32822057604789734,-0.3296578824520111,0.15371818840503693,0.012725458480417728,0.5514287948608398,-0.5376587510108948,0.24602152407169342,-0.18471811711788177,-0.22655047476291656,-0.2950628995895386,0.06864495575428009,-0.14573484659194946,-0.09698902815580368,0.33003005385398865,-0.566199004650116,-0.016030697152018547,-0.39801621437072754,-0.09786738455295563,-0.5442501902580261,-0.48217183351516724,-0.004279430955648422,0.052927590906620026,-0.22073324024677277,-0.02167096920311451,-0.5376719236373901,-0.4151729345321655,-0.0392579585313797,0.2489193081855774,0.22117666900157928,0.1811378449201584,-0.3471394181251526,0.07271389663219452,0.10623154044151306,-0.47853803634643555,-0.322817862033844,0.21862690150737762,0.3560568690299988,0.08939174562692642,-0.41079986095428467,-0.011511535383760929,-0.04844348505139351,0.6989502906799316,-0.1725231260061264,0.12807859480381012,-0.20194989442825317,-0.17281252145767212,-0.11353745311498642,-0.16454586386680603,0.016938064247369766,-0.29497331380844116,0.2393651008605957,-0.15122851729393005,0.28524646162986755,0.08344956487417221,0.44386476278305054,0.009421331807971,0.010021562688052654,0.34565138816833496,-0.04151738062500954,-0.09084589779376984,-0.1044996827840805,-0.24894578754901886,-0.03960173949599266,0.13716131448745728,-0.6296889185905457,0.47629785537719727,0.1771431416273117,0.0428570881485939,0.08897339552640915,0.12437378615140915,0.24841207265853882,0.07352278381586075,0.05409056320786476,-0.9265047311782837,0.31954559683799744,-0.30686813592910767,-0.10767210274934769,-0.40445148944854736,-0.26251915097236633,-0.017608392983675003,0.2653869688510895,0.107313372194767,0.028190787881612778,-0.02853354811668396,0.41075795888900757,0.20642971992492676,0.18330074846744537,-0.15938346087932587,-0.1863241046667099,-0.33052852749824524,0.3240879476070404,-0.1371537148952484,-0.07442782074213028,0.5792649984359741,-0.07688156515359879,0.04316828399896622,-0.05143701285123825,-0.5318071246147156,0.4031866490840912,-0.0616476833820343,0.11141727864742279,-0.24154002964496613,0.08694212138652802,-0.2513445317745209,-0.26273787021636963,0.23148894309997559,-0.4537551999092102,0.08504618704319,-0.21764878928661346,0.3273455500602722,0.16606144607067108,-0.26794499158859253,-0.4463796615600586,-0.12918563187122345,0.14986558258533478,0.05736391618847847,0.3806416690349579,-0.07822347432374954,0.019798675552010536,0.1273425817489624,0.025645507499575615,0.24287548661231995,-0.07096167653799057,0.5155707597732544,0.18995675444602966,-0.2215968519449234,0.1681041419506073,-0.48041120171546936,-0.3992677330970764,0.4130725562572479,-0.2540798783302307,0.11789107322692871,-0.18069279193878174,0.09988207370042801,-0.13432782888412476,-0.10607867687940598,-0.17158657312393188],"biases":[-0.055365774780511856,0.024457449093461037,0.061505917459726334,-0.00024010978813748807,0.029562152922153473,-0.1391688585281372,-0.006547446828335524,-0.03770464286208153,-0.0454743355512619,0.012241858057677746,-0.046899937093257904,0.06236583739519119,0.04512746259570122,-0.011225496418774128,-0.025253109633922577,-0.0009289020672440529,0.08783315122127533,-0.007742639165371656,0.14961160719394684,-0.05003415048122406,0.04330508038401604,0.025711150839924812,0.14467312395572662,0.029159365221858025,-0.02804320491850376,-0.04922957718372345,-0.0022764932364225388,0.0012496844865381718,0.001382277114316821,-0.036862634122371674,0.06924580037593842,0.040617771446704865]},null,{"weights":[-0.06895660609006882,-0.40707114338874817,0.7564721703529358,-0.5573796629905701,0.6028733253479004,-0.27695509791374207,-0.2198517620563507,-0.43073219060897827,-0.6506822109222412,0.11362934112548828,-0.14344947040081024,0.147734135389328,0.4354458451271057,0.5061032176017761,-0.29525691270828247,0.462355375289917,0.07651820778846741,-0.03192949295043945,-0.7316721677780151,0.30000483989715576,-0.012255130335688591,0.3513062000274658,-0.7894468903541565,-0.317959189414978,-0.40576547384262085,0.2324843853712082,0.0590599924325943,0.5329761505126953,0.03329596668481827,0.5140867829322815,-0.6854667663574219,0.22818686068058014,-0.2528785467147827,0.36353904008865356,0.20846408605575562,-0.09821071475744247,0.06881067156791687,-0.18023131787776947,0.025091703981161118,-0.8593501448631287,-0.522029459476471,0.2129247933626175,-0.07936462759971619,0.4024374783039093,-0.057089146226644516,-0.09065504372119904,0.32330140471458435,0.14860504865646362,-0.4506222903728485,-0.3777245879173279,-0.22214429080486298,0.010999144054949284,0.6687896847724915,0.31055888533592224,-0.5093491077423096,0.4494517743587494,0.18518047034740448,-0.7130364179611206,0.08962248265743256,-0.008711273781955242,-0.20443236827850342,0.10605749487876892,0.968468427658081,0.3948040306568146],"biases":[0.09053182601928711,-0.13589701056480408]}],"critic":[{"weights":[0.14189760386943817,-0.32244327664375305,-0.46480411291122437,0.5176844000816345,0.5134754776954651,0.8033953309059143,0.024222802370786667,-0.568392813205719,0.24314969778060913,-0.0930754765868187,-0.09380979835987091,0.6887125372886658,0.3816244602203369,1.787284255027771,0.22628527879714966,0.1274530440568924,4.535243511199951,-1.3344286680221558,-3.939789056777954,-1.117760419845581,10.937382698059082,-0.93241947889328,-0.988150954246521,11.578947067260742,-7.889931678771973,-0.9741930365562439,3.557713031768799,-2.6416335105895996,-15.607919692993164,-1.7585887908935547,0.11247169971466064,-14.890827178955078,-0.25697484612464905,-0.586489737033844,1.4067573547363281,0.568865180015564,1.15846586227417,2.1714296340942383,-1.570472240447998,0.6916854977607727,-7.538510799407959,-5.488208293914795,-4.4825592041015625,-0.752844512462616,-1.0295841693878174,-0.9081011414527893,-11.692564964294434,0.12003268301486969,1.6824827194213867,-2.925596237182617,-2.156418561935425,-1.8447664976119995,-3.658095121383667,-0.2752712070941925,-5.510993957519531,-0.5470109581947327,4.336779594421387,1.0968366861343384,1.777098298072815,-0.3622702360153198,8.574374198913574,-1.3428611755371094,3.333700656890869,7.251834869384766,0.8737132549285889,-2.1198322772979736,-0.604235827922821,-0.31427446007728577,0.09832397848367691,0.6804206967353821,-0.5980985760688782,1.2259159088134766,0.15505191683769226,-0.18153730034828186,-0.5581147074699402,-1.6109509468078613,-10.524365425109863,-2.0477852821350098,-2.0278842449188232,-8.500971794128418,0.061416976153850555,0.3858017921447754,0.007700003683567047,0.6710910201072693,1.211949110031128,1.5267091989517212,0.6541223526000977,0.01660325564444065,1.0262960195541382,0.47500917315483093,0.7629262804985046,-0.1886775642633438,0.32091325521469116,0.6135208606719971,-0.49491772055625916,-0.7513324618339539,0.1969936192035675,0.13846299052238464,0.4465751349925995,-0.051619287580251694,-0.6736624240875244,0.702973484992981,0.10384903103113174,0.6098580360412598,-8.383443832397461,-5.265231132507324,-1.7882758378982544,-1.0778383016586304,-10.51718521118164,-2.3875672817230225,-11.319864273071289,-7.189702033996582,-1.4493701457977295,-0.6286784410476685,0.738126814365387,0.26440703868865967,1.530064344406128,0.9557445645332336,-0.8213079571723938,1.2084178924560547,8.427820205688477,1.848789095878601,-2.4698691368103027,-0.4060439169406891,11.54426383972168,-1.8131780624389648,1.5943619012832642,10.61834716796875,-5.690180778503418,-1.1384057998657227,-6.6411356925964355,-2.2089977264404297,1.9195878505706787,-1.2193135023117065,-4.684756755828857,6.077609539031982,3.0412545204162598,5.512819766998291,0.8114728331565857,-0.8233344554901123,8.40884017944336,-1.4251660108566284,10.94483757019043,5.882558345794678,-7.025511264801025,-0.13025227189064026,-0.5615785717964172,-0.8889403939247131,-2.2087559700012207,-0.01184643991291523,-0.04933582618832588,0.8404348492622375,-1.2721397876739502,1.9670997858047485,0.3567329943180084,-0.4627813696861267,1.8548928499221802,-0.21520204842090607,0.7075957655906677,-0.5849515795707703,-1.4772326946258545,-0.18201692402362823,3.163569688796997,-1.4049692153930664,3.552903413772583,-0.9133415222167969,2.64003586769104,1.7924246788024902,-9.921323776245117,-2.502185344696045,-4.262322902679443,-2.2072384357452393,-1.2467046976089478,-4.1139020919799805,-6.625362396240234,0.0717691034078598,8.9827880859375,1.0568666458129883,1.5323632955551147,0.4664609432220459,4.256548881530762,-2.2590227127075195,1.0912364721298218,0.3733486235141754,5.255504131317139,2.608893871307373,0.7053866386413574,-1.4763736724853516,7.8980512619018555,-0.2953217029571533,4.70355749130249,7.096599102020264,-0.6252680420875549,-0.42404472827911377,-0.38225385546684265,-1.3048843145370483,0.5920910835266113,-0.17707481980323792,-0.0922701358795166,0.5687042474746704,6.365163326263428,2.4361014366149902,5.876151084899902,-2.429335832595825,-2.4444446563720703,-0.8474662899971008,5.400003910064697,-4.762633323669434,8.323152542114258,6.036658763885498,5.073738098144531,0.3223600387573242,0.7296127080917358,-2.8595919609069824,13.040830612182617,-0.22947975993156433,-3.877755641937256,-0.912237823009491,-2.7415759563446045,-1.7403783798217773,5.367130756378174,-2.459617853164673,-0.7036576271057129,4.542918682098389,-0.21201397478580475,-2.968230724334717,0.26454925537109375,-0.9619924426078796,0.8639382719993591,-1.380289077758789,2.2797000408172607,2.2070555686950684,-2.4043216705322266,-0.015393698588013649,0.4637371599674225,0.7271336913108826,1.7994478940963745,1.8230669498443604,-0.1382990926504135,0.8555576801300049,1.206544280052185,2.642047643661499,-1.091578483581543,-1.8509882688522339,0.8036430478096008,-1.023298740386963,-4.095754623413086,-2.668142080307007,2.1931614875793457,1.2131470441818237,1.6734353303909302,-2.0455832481384277,-0.0855027288198471,-1.5632455348968506,0.951784074306488,-0.5041399598121643],"biases":[-1.608938455581665,-2.98572039604187,0.7098751068115234,0.4951086938381195,-3.7749123573303223,-0.6248089075088501,-0.11161063611507416,0.494120329618454,-1.7551171779632568,0.7285093665122986,-2.889667272567749,-1.1798592805862427,-0.927948534488678,-0.5768421292304993,-3.1425392627716064,0.9049180150032043,-1.1299949884414673,-0.16674090921878815,-1.5055099725723267,-1.3990652561187744,-0.98308265209198,0.2595793604850769,-2.6118180751800537,0.421583890914917,0.2390861064195633,-0.7518097162246704,0.7362511157989502,-0.015175705775618553,-1.603135347366333,-3.1576011180877686,-0.5326771140098572,1.0173687934875488]},null,{"weights":[0.04622027650475502,-0.16692344844341278,-0.7736576199531555,-0.4746062159538269,0.08843597769737244,0.21341705322265625,-0.10110945254564285,-0.29862260818481445,0.17553773522377014,-0.5003930926322937,-0.0519394651055336,-0.13988810777664185,-0.5886854529380798,-0.0007664833683520555,0.10913513600826263,-0.550152599811554,0.3387856185436249,-0.3128238320350647,-0.052759572863578796,0.2149595320224762,-0.35897213220596313,0.4425913989543915,0.7047039270401001,-0.18235176801681519,-0.13245049118995667,0.4100702404975891,0.786965548992157,-0.1247931718826294,-0.2676185965538025,-0.19006997346878052,0.2573125660419464,-0.20844173431396484,-0.1476590633392334,-0.7865188121795654,0.8753119707107544,0.9288674592971802,-1.0692288875579834,0.3774333596229553,0.35090193152427673,0.5036150217056274,0.015209769830107689,1.1906951665878296,-0.3530887961387634,0.673082172870636,-0.3059270977973938,-0.2334766983985901,-0.7202310562133789,-0.2845418453216553,1.9866924285888672,-0.07962669432163239,1.311644196510315,0.152119979262352,0.9158304333686829,-0.44542592763900757,1.9257432222366333,-0.4138757884502411,-0.3043628931045532,1.0700020790100098,0.5778703093528748,-0.10543064773082733,1.0176981687545776,-0.9032973647117615,1.7925713062286377,-2.547781467437744,-0.28971579670906067,-0.46217870712280273,1.1492999792099,-0.3666636049747467,0.017964454367756844,0.2776462733745575,0.42006996273994446,-0.533977746963501,0.07801982760429382,0.17210659384727478,-0.3878232538700104,-0.6085443496704102,0.12696491181850433,-0.7693801522254944,-0.003528401954099536,0.16516073048114777,0.2120596468448639,0.04231620207428932,-0.2610240578651428,-0.012065854854881763,-0.1848098635673523,-0.6349740624427795,0.41629937291145325,-0.31256192922592163,0.2851855754852295,-0.2289009988307953,-0.8005443811416626,-0.2920345067977905,0.010458441451191902,0.02171292155981064,0.5169318318367004,-0.26895007491111755,-0.12520739436149597,-0.5756800174713135,-0.01306014135479927,0.8642676472663879,-0.2840507924556732,-0.35456863045692444,-0.4995867908000946,0.4754072427749634,0.05400784686207771,-0.2640158534049988,-0.027013512328267097,0.1344543993473053,-0.10912404954433441,-1.0656124353408813,-0.7227622866630554,-0.264270156621933,0.08526939898729324,-0.25223028659820557,1.0314486026763916,0.1741732805967331,0.8217788338661194,-0.43367424607276917,1.4907984733581543,-0.3866288661956787,-0.048367954790592194,0.49166280031204224,0.6287411451339722,-0.11735442280769348,0.9059337377548218,-0.7954505681991577,0.33417847752571106,-1.4025459289550781,-0.0063814581371843815,-0.3197181224822998,-0.7799152731895447,-0.5672332644462585,-0.5204749703407288,0.4979577362537384,0.5108881592750549,-0.8579571843147278,0.6402376294136047,-0.6333752870559692,0.00613915640860796,-0.3246406316757202,-0.13600917160511017,0.41126754879951477,-0.23932138085365295,0.01084237452596426,-0.7004005908966064,-0.5003476142883301,0.04428759589791298,-0.41203027963638306,-0.131780207157135,-1.089172124862671,0.6006900668144226,-0.17845037579536438,-0.29696202278137207,-1.2361080646514893,0.20750580728054047,0.3392737805843353,0.05421232059597969,-0.09517696499824524,-0.13132797181606293,-0.06848310679197311,-0.38024190068244934,-0.00006304923590505496,-0.20396263897418976,0.7829453349113464,-0.48022112250328064,-0.4607181251049042,-0.3320135772228241,0.15647414326667786,0.1945275217294693,-1.313706874847412,-0.19563427567481995,-0.13884539902210236,-0.05557022988796234,-0.19075876474380493,-0.472491979598999,0.00038003362715244293,-0.19829289615154266,-0.1381841003894806,0.7142866253852844,-0.011466347612440586,0.32590973377227783,0.26095834374427795,1.1485321521759033,-0.05215896666049957,0.10853312164545059,0.3993101716041565,0.21071720123291016,-0.6992296576499939,0.428192675113678,-1.05415678024292,0.3352404534816742,-0.9807549118995667,-0.14178109169006348,-0.8725705146789551,-0.01749158836901188,-0.22473987936973572,0.055012091994285583,-0.25100117921829224,0.3171709477901459,0.033170875161886215,0.00008625675400253385,-0.2942434847354889,-0.25965502858161926,0.07100851088762283,-0.002332664793357253,0.23623041808605194,-0.09183017164468765,-0.19183044135570526,0.14399977028369904,0.1753290742635727,0.1440625637769699,0.4854469299316406,-0.07985593378543854,-0.3574402928352356,-0.19341912865638733,-0.13905031979084015,0.1381763517856598,-0.25981616973876953,-0.010819642804563046,-0.4871368706226349,0.10594148933887482,-0.2810922861099243,0.2698129713535309,0.3582078516483307,-0.27382874488830566,0.21404080092906952,-1.5201807022094727,-0.387792706489563,-0.5733668804168701,0.7905023694038391,-0.09626954048871994,-1.9087010622024536,0.17257653176784515,-1.0631150007247925,-0.4034711420536041,-0.5721551775932312,0.18545547127723694,-0.029092373326420784,0.2869102656841278,0.4232335388660431,-0.4690932333469391,-0.9637022614479065,0.016312293708324432,-0.09656139463186264,-0.2169986218214035,-2.5037689208984375,-3.1688687801361084,-0.4273756444454193,-0.05339372903108597,-1.7777429819107056,-0.3292521834373474,-0.22908185422420502,0.12067727744579315,0.3764345645904541,-0.3690527081489563,0.0693042129278183,0.0723375529050827,0.4586201608181,-1.7289036512374878,-1.3346978425979614,-0.30480703711509705,-0.7528086304664612,-0.9503204822540283,-1.3147276639938354,-0.11387690901756287,-1.704707145690918,0.03977305069565773,0.07077306509017944,0.20538261532783508,-1.4479974508285522,-0.3539856970310211,-0.8638502955436707,-0.9383834004402161,-2.116454839706421,0.07296757400035858,-0.712631106376648,-0.25340598821640015,-0.1798873394727707,-0.06956764310598373,-1.2056912183761597,-0.14029979705810547,-0.5948203802108765,-0.6141207814216614,-1.2528648376464844,-1.4121806621551514,-0.49501290917396545,-1.4725955724716187,-0.4391130208969116,-0.16260221600532532,-0.6384131908416748,-0.01404024101793766,0.004114522133022547,-0.64864182472229,0.4236553907394409,0.2631472945213318,-0.7954183220863342,-0.041117895394563675,0.4057250916957855,-0.19044023752212524,-0.13406287133693695,-0.10133225470781326,0.07468032836914062,0.1621704399585724,-0.07531777769327164,0.7455669641494751,-0.004999959841370583,-0.026954563334584236,-0.27376145124435425,0.3014571964740753,-0.03596145287156105,1.0424861907958984,0.021262509748339653,-0.20070067048072815,-0.14257904887199402,0.100071020424366,0.1862170249223709,0.22659803926944733,-0.06555349379777908,0.14978426694869995,-0.4173097014427185,-0.5949656963348389,-0.9119166135787964,0.5516234636306763,-0.33284643292427063,-0.3573165833950043,0.5084770917892456,0.23240111768245697,0.33810093998908997,-0.0655294731259346,0.7631601095199585,-0.13598759472370148,-0.38207027316093445,-0.37787163257598877,0.20967857539653778,-0.9088055491447449,0.5072080492973328,0.6501165628433228,-0.020275292918086052,0.6906875371932983,-0.05943440645933151,0.13224314153194427,0.344857394695282,1.251911997795105,-0.46872785687446594,-0.3876817524433136,0.18817582726478577,-0.0702793076634407,-0.13334769010543823,0.24511216580867767,-0.5992079973220825,0.8465031385421753,-1.55491042137146,-0.32949796319007874,-0.39106059074401855,0.013565247878432274,-0.1609129160642624,-0.45205843448638916,0.09109009802341461,-0.23832333087921143,-0.3675084412097931,0.07450495660305023,0.07522349804639816,-0.23321281373500824,-0.2648502290248871,-0.453509122133255,-0.23854146897792816,0.13188335299491882,0.6356040239334106,-0.2907426059246063,-1.0559806823730469,0.13077211380004883,0.4967397451400757,0.1386777013540268,-0.3258873224258423,-0.6950451731681824,0.5769063830375671,0.08003028482198715,-1.0490548610687256,0.45958974957466125,-0.3686075806617737,-0.23623397946357727,-0.20912273228168488,-0.16728924214839935,-0.0609535314142704,0.1286720335483551,-0.11526638269424438,0.43066170811653137,-0.22893768548965454,-0.8403996229171753,0.05995895713567734,0.0326637402176857,-0.5646646618843079,-0.5271571278572083,0.05660120025277138,-0.8159434795379639,-0.38291382789611816,-0.11028646677732468,-0.6543350219726562,-0.5706337094306946,0.5991146564483643,-0.11004063487052917,-1.4204708337783813,0.7992525100708008,-0.8654675483703613,-0.01867128536105156,-0.37795600295066833,-0.762815535068512,0.12773434817790985,-0.05421056970953941,-0.4093034863471985,0.6481121182441711,0.4274212419986725,-0.24911396205425262,-0.0976746529340744,-0.01799163781106472,0.20651236176490784,0.19767528772354126,0.19898249208927155,-0.46472159028053284,-0.05622868239879608,-0.7501407861709595,-0.20058545470237732,-0.2518332004547119,0.2497318685054779,-0.5250121355056763,0.04963294789195061,-0.24527046084403992,0.3032090365886688,0.07860413193702698,-0.36290979385375977,-0.44961807131767273,-0.09818211942911148,0.006357460282742977,-0.18116770684719086,-0.552805483341217,0.05647861585021019,0.4048430025577545,0.06579966098070145,-0.035287436097860336,0.12078496813774109,0.028438199311494827,-0.2826068103313446,-0.21436522901058197,0.03337476775050163,-0.5022095441818237,0.07762045413255692,-0.384644478559494,0.1409548819065094,-0.46046116948127747,-1.0511958599090576,-0.14325670897960663,-0.2012629359960556,-0.7429468035697937,-0.10522381961345673,-0.8036908507347107,0.1827746480703354,-0.022390009835362434,-0.6881499886512756,-0.3739537000656128,0.288082480430603,0.25508028268814087,-0.010355748236179352,-0.33398473262786865,-0.07403184473514557,0.9080454707145691,-0.030817825347185135,0.784393310546875,-0.10791384428739548,0.8042877912521362,0.2636968791484833,1.1330089569091797,-0.39274418354034424,-0.2534184753894806,0.4797985255718231,0.6392690539360046,0.07058092951774597,0.869231104850769,-0.27139315009117126,0.49074578285217285,-0.5969803929328918,0.21275338530540466,-1.259280800819397,0.9465780258178711,0.06420076638460159,-1.0347152948379517,0.1961955577135086,-0.09525929391384125,0.48501870036125183,-0.4128255844116211,1.1956276893615723,-0.7779747247695923,-0.7068817019462585,-0.6637763977050781,0.02139935828745365,-0.17058956623077393,0.46471261978149414,1.2290245294570923,0.02762111835181713,0.8200700283050537,0.6246759295463562,0.7947514057159424,-0.10703454911708832,0.29956287145614624,0.06662581115961075,-0.5326871871948242,-1.3963373899459839,-0.8002188205718994,0.30376553535461426,0.23591722548007965,-0.5112665891647339,0.5686452984809875,-0.29619529843330383,-0.08894437551498413,-0.8147155046463013,0.04638966917991638,0.21522659063339233,-0.2730189859867096,0.16479116678237915,0.11427654325962067,0.14361324906349182,-0.23170453310012817,0.5755378603935242,-0.4290602505207062,0.42994144558906555,-0.18983487784862518,0.028506416827440262,-0.2695674002170563,-0.02301531471312046,0.9097265601158142,-0.025404270738363266,0.6979919672012329,-0.08158852159976959,0.38372617959976196,-0.038434747606515884,0.9028661251068115,0.15473520755767822,-0.36363381147384644,0.5732269287109375,0.15244369208812714,0.18369168043136597,0.37871935963630676,-0.7907665371894836,0.7115212678909302,-1.026904582977295,0.15386885404586792,0.02526063658297062,-0.31000176072120667,0.012872779741883278,-0.35092905163764954,0.15920139849185944,-0.545660674571991,-0.10478571057319641,-0.3147820830345154,-0.4243323802947998,-0.03590461611747742,0.2198432832956314,-0.09161078929901123,-0.11145209521055222,-0.056342288851737976,-0.3236181139945984,-0.32910212874412537,0.2879082262516022,-0.05979486182332039,-0.12158233672380447,-0.027721591293811798,-0.3463873863220215,-0.20989224314689636,-0.09901301562786102,0.04349048435688019,0.24372883141040802,0.006326438393443823,0.18171200156211853,-0.05892868712544441,0.13536879420280457,-0.5309622287750244,-0.12329781800508499,-0.16228899359703064,-0.42019447684288025,-0.3861539959907532,0.31328970193862915,-0.4530085325241089,-0.22602099180221558,-0.22150279581546783,0.44921034574508667,-0.2924140393733978,0.7146641612052917,-0.45191800594329834,0.07644941657781601,-0.38246476650238037,0.31362852454185486,-0.6284193396568298,-0.45271533727645874,0.49086037278175354,-0.2523142099380493,1.1435681581497192,0.04088887944817543,0.4544186592102051,-0.41763928532600403,1.370434284210205,0.09237881004810333,-0.37821850180625916,0.3579122722148895,0.6977517604827881,0.11637961864471436,0.5905666351318359,-0.9067608118057251,0.27841368317604065,-1.1186435222625732,0.08548971265554428,-0.3547426462173462,-1.4661017656326294,-1.6575080156326294,-0.6618582010269165,-0.9914939999580383,-0.811669647693634,-0.6605802178382874,-0.5120570063591003,-2.118492841720581,-0.47075921297073364,-0.37460964918136597,-0.19298411905765533,-1.9184561967849731,-0.625648558139801,-1.2498526573181152,-1.2839531898498535,-0.9277247190475464,-0.9721674919128418,0.058779601007699966,-0.8723141551017761,-2.4762959480285645,-0.21468102931976318,-1.0901604890823364,0.5110448598861694,-1.6983847618103027,-3.187878131866455,-1.0324199199676514,-0.20370125770568848,-0.6420574188232422,-0.5649653673171997,-0.08388949185609818,0.3311689794063568,-0.19294311106204987,-0.15878719091415405,0.1132010668516159,-0.37078219652175903,-0.038313306868076324,-0.44673749804496765,0.17731231451034546,-0.36524468660354614,0.0877954512834549,-0.2784956395626068,-0.4008810520172119,-0.24662861227989197,-0.061577070504426956,-0.03844929113984108,0.0706552043557167,-0.2601374387741089,-0.3134992718696594,-0.00547407753765583,-0.31665611267089844,0.3775848150253296,-0.27317559719085693,0.6203280091285706,0.12722840905189514,0.03378216177225113,-0.41962721943855286,-0.5202458500862122,-0.13546673953533173,0.17706651985645294,-0.3357577323913574,-0.3937024772167206,-0.2671162486076355,-0.28426072001457214,-0.02781759761273861,0.12410470098257065,-0.44378072023391724,-0.41105201840400696,-0.6071891784667969,0.061929792165756226,-0.11196382343769073,-1.1658332347869873,-0.37810662388801575,-0.7031952738761902,-0.3535241186618805,-0.3046329617500305,-0.3900175392627716,-0.9604133367538452,-0.036878712475299835,0.6738026142120361,0.1549096256494522,-0.23379969596862793,0.07789646089076996,-0.052223607897758484,0.7138583660125732,-0.25627997517585754,-0.05591898411512375,0.5387007594108582,-0.3228340446949005,-0.6608718633651733,1.3788182735443115,-0.34666958451271057,-1.0263904333114624,0.019964635372161865,0.06522774696350098,-0.07937967777252197,-0.10946515947580338,-0.8349289894104004,-1.528259038925171,-0.3384857773780823,-0.6562726497650146,0.13635028898715973,0.1760326474905014,-0.3314700424671173,-0.9051142334938049,-0.22393253445625305,-0.5765020847320557,-0.1372416764497757,-1.4378876686096191,-0.2939431369304657,-0.57122403383255,-2.3992671966552734,-1.5755929946899414,-0.26346179842948914,-0.5736291408538818,-0.8852717876434326,-0.720365583896637,-1.2616750001907349,-0.40680360794067383,0.2851679027080536,-1.9096964597702026,-0.4239810109138489,-2.1419620513916016,-2.3299460411071777,-0.162631556391716,-2.875133752822876,-0.036817677319049835,0.11574514955282211,-0.1014505922794342,-0.2098589688539505,-0.024408183991909027,0.22209466993808746,-0.15123116970062256,-0.11965858936309814,-0.5332767367362976,-0.20577192306518555,0.5719843506813049,-0.5810409784317017,-0.08556286990642548,-0.22736263275146484,0.3174167573451996,0.04532536491751671,-0.38594552874565125,1.1010416746139526,-0.11236094683408737,0.6381188631057739,-0.04304663464426994,0.2933140993118286,-0.42696326971054077,-0.14919552206993103,-0.15744833648204803,-0.5290284156799316,-0.24780084192752838,-0.1297380030155182,0.3638930320739746,0.5254878997802734,-0.007088099606335163,-0.2888222634792328,-0.3151697814464569,0.02677401714026928,-0.09822992235422134,-0.0746888518333435,-0.7713037729263306,-0.4266998767852783,0.11990725994110107,0.014915850013494492,-0.10718905180692673,-0.18751007318496704,0.5769525766372681,-0.1558331847190857,-0.3106963634490967,-0.16685880720615387,-0.5198993682861328,-0.08448048681020737,-0.44001713395118713,-0.8170316219329834,-0.08719561249017715,-0.16063515841960907,-0.22888651490211487,0.20864269137382507,0.08817463368177414,-0.35255134105682373,0.09893950074911118,0.26090580224990845,-0.03593898564577103,-0.1535765826702118,-0.6546698212623596,0.2960454225540161,-0.08428902924060822,-0.014969303272664547,0.1423933207988739,-0.4854166805744171,-0.7558351159095764,0.1117049902677536,0.6778461933135986,0.13836173713207245,-0.8549749255180359,-0.09008712321519852,0.8049474954605103,-0.30971139669418335,-0.7496653199195862,-0.19509217143058777,0.15664172172546387,0.1886073350906372,-1.1194528341293335,-0.9326102137565613,-0.8032779693603516,-0.20804964005947113,0.47254419326782227,0.5128680467605591,0.6384610533714294,2.0560946464538574,-0.3371115028858185,-0.21933923661708832,0.05227390304207802,-0.32860732078552246,0.18851599097251892,-0.5149542689323425,0.1500919759273529,-0.18555477261543274,-0.7940719127655029,0.4521638751029968,-0.25951358675956726,-0.26524630188941956,-0.574389636516571,0.3286689519882202,-0.4043457508087158,-0.2978343963623047,-0.03958975523710251,-0.5530713200569153,-0.7236611247062683,-0.7771533727645874,0.2705700397491455,-0.11917149275541306,0.5921961665153503,-0.2796652317047119,0.06969760358333588,0.21782708168029785,0.5158216953277588,-0.7071663737297058,-0.17209301888942719,-0.07526955753564835,0.36445724964141846,-0.528346061706543,-0.20244579017162323,0.7883998155593872,-0.6421154141426086,-0.2613521218299866,0.1737130582332611,-0.057796820998191833,-0.36357319355010986,0.20118966698646545,-0.15176622569561005,0.8179876208305359,-0.5157824754714966,0.1566116362810135,-0.11818692088127136,-1.1818217039108276,-0.6155643463134766,-0.25115343928337097,-0.6729598045349121,-1.5887011289596558,-0.32461991906166077,-0.6645215749740601,-1.134830117225647,0.09378735721111298,-0.06162869930267334,0.06828837096691132,-0.4345686435699463,-0.8404560089111328,-2.108001947402954,-1.6318823099136353,-1.2393652200698853,-1.2795580625534058,-0.06539502739906311,-0.6643022298812866,-1.7525132894515991,-0.4314641058444977,-1.354330062866211,0.4548948407173157,-1.8188916444778442,-2.0676958560943604,-1.2378627061843872,-0.3732972741127014,-0.7002984285354614,-0.1645311862230301,-0.13226494193077087,-0.08108500391244888,-0.3261849880218506,-1.2877944707870483,-1.3967912197113037,-0.5389399528503418,0.474061518907547,-1.0542075634002686,-1.0018677711486816,-0.3419143259525299,0.18444901704788208,0.18746984004974365,0.1266137957572937,0.14069864153862,0.1948409378528595,0.17923922836780548,-0.8662710189819336,0.746378481388092,-0.4863277077674866,-0.14756445586681366,0.10332416743040085,-0.45938166975975037,0.47897404432296753,0.7273536920547485,-0.7363197207450867,-0.21863098442554474,-0.2621450424194336,1.042580246925354,-0.14693675935268402,0.12261702120304108,-0.23094210028648376,0.25644296407699585,-0.7198261022567749,0.02981286495923996,0.3230249583721161,-0.2514078915119171,-0.01614617183804512,-0.4557320475578308,0.0691496953368187,-0.17960357666015625,0.38729995489120483,-0.010597286745905876,0.24900977313518524,-0.9609984755516052,-0.11014866828918457,-0.286853551864624,-0.31881028413772583,-0.5273746848106384,-0.7068151831626892,-0.6305501461029053,-0.20514030754566193,0.09276032447814941,-0.3896675705909729,0.006545586511492729,-0.4257695972919464,0.6327827572822571,0.006916645914316177,0.19193609058856964,1.3803294897079468,-0.5882785320281982,-0.10944779962301254,0.02572111412882805,-0.15490689873695374,0.1347716897726059,1.1541447639465332,-0.7203718423843384,-0.3876786231994629,-0.9302091002464294,-0.12965479493141174,-0.43152832984924316,-0.7032679915428162,-1.418054223060608,-0.9987263083457947,-0.3711067736148834,-1.0088027715682983,-0.321872740983963,-0.2697601914405823,-0.303760290145874,-1.5414279699325562,-0.5388005375862122,-1.6540160179138184,-0.6952406167984009,-0.7813647985458374,-0.9406123161315918,0.11711964011192322,-0.19422008097171783,-1.6880220174789429,-0.3459993004798889,-1.145424246788025,0.3562721312046051,-1.194672703742981,-2.1382522583007812,-0.7933839559555054,0.03611487150192261,-0.31061431765556335,0.10125419497489929,0.2644604444503784,-0.40571123361587524,-0.19975145161151886,0.5458828210830688,-0.4088870584964752,0.09082946926355362,-0.3395732641220093,0.565165638923645,-0.5050026774406433,-0.33578959107398987,1.3619507551193237,-0.17384877800941467,-0.02504764311015606,-0.4321156144142151,-1.1761773824691772,-0.05065358802676201,-0.16742636263370514,-0.40034276247024536,-0.26151829957962036,0.26167306303977966,-0.11539395898580551,-0.06465068459510803,-0.35023975372314453,0.1975090503692627,-0.19019556045532227,0.003613551612943411,0.11714048683643341,-0.7362956404685974,-0.5218089818954468,-0.4093343913555145,-0.026354113593697548,0.44116178154945374,0.13506197929382324],"biases":[-0.7613400816917419,-3.3856351375579834,-0.4813302159309387,-1.6222176551818848,1.051140308380127,-1.066794991493225,-0.02168053202331066,4.3084797859191895,7.724957466125488,-1.0854716300964355,-2.1199772357940674,0.551533579826355,-0.13502457737922668,-0.2824612855911255,-1.8993070125579834,-1.8867506980895996,-1.717803955078125,-0.21371574699878693,-2.1996071338653564,1.862492322921753,-0.414324551820755,-1.4229247570037842,12.293192863464355,-1.1119334697723389,-0.5409032106399536,-0.7466772794723511,-0.8690580725669861,4.24289608001709,-1.4815858602523804,-1.3503214120864868,1.7602851390838623,-0.5736271142959595]},null,{"weights":[-0.6793854832649231,-1.0015829801559448,-1.1809157133102417,-0.6970757842063904,0.6993611454963684,-0.4120278060436249,0.18898892402648926,2.6038730144500732,4.978754043579102,-0.26860517263412476,-0.49479779601097107,0.903390645980835,0.6939759850502014,-0.24809831380844116,-0.551775336265564,-0.4198181927204132,-0.4342954456806183,-0.06117360293865204,-0.5213088393211365,1.4674066305160522,-0.19833628833293915,1.4023637771606445,6.530373573303223,-0.21041113138198853,-0.46262305974960327,-1.4773690700531006,-1.0098719596862793,3.4285666942596436,-1.4588102102279663,1.0179028511047363,1.5426932573318481,-1.1493196487426758],"biases":[21.202472686767578]}]}